0.128026 -0.071833 -0.038402
0.381301 0.062143 0.108465
0.071933 -0.316287 -0.384702
0.128471 -0.053748 0.113120
0.449585 0.085308 0.236507
0.095427 -0.350468 -0.419170
0.010061 -0.101361 0.112090
0.193744 0.010905 0.211437
-0.009235 -0.223703 -0.267610

-0.108807 0.049901 0.182141
-0.085708 0.196232 0.244025
-0.156667 0.105172 0.230226
-0.125383 -0.176599 -0.195225
-0.153254 -0.189584 -0.369857
-0.222588 -0.298201 -0.303790
0.255481 0.270057 0.041453
0.370758 0.432273 -0.028805
0.211172 0.273086 0.071972

-0.131454 -0.230244 -0.097744
-0.261423 -0.404487 -0.302568
-0.214630 -0.313178 -0.182832
-0.023841 0.042438 0.063044
0.042427 0.102434 0.001218
0.033002 0.075488 0.017670
0.080044 0.210888 0.143976
0.341153 0.423538 0.224729
0.297983 0.347400 0.170584

0.033652 0.050493 -0.072968
0.151166 0.132128 0.013914
0.242401 0.188499 0.076425
-0.202627 -0.280546 -0.178488
-0.310692 -0.439741 -0.225008
-0.291441 -0.436244 -0.238762
0.145948 0.248279 0.205794
0.139857 0.261835 0.274615
0.055593 0.116442 0.150372

-0.015752 0.116997 0.009726
-0.069830 0.320217 -0.253326
-0.114580 0.321654 -0.218063
-0.105051 0.087557 -0.138256
-0.048946 0.411506 -0.442072
-0.085937 0.378914 -0.429892
0.006140 0.023823 -0.083327
-0.038475 0.288962 -0.224727
-0.018674 0.303120 -0.192645

0.151847 -0.083765 0.061175
0.201925 -0.400550 -0.399541
0.078009 0.182427 0.156858
0.258458 -0.052656 0.145132
0.220503 -0.486409 -0.391808
0.064282 0.172240 0.249535
0.094793 -0.011222 0.157751
0.117816 -0.306466 -0.229211
-0.020513 0.112256 0.148526

0.074813 0.369243 0.175562
0.315972 0.736258 0.146471
0.146804 0.355582 -0.093647
-0.185045 -0.315133 -0.125441
-0.248578 -0.413414 -0.248794
-0.133049 -0.195736 -0.061205
0.035110 -0.039487 0.072179
-0.021384 0.003193 0.038922
0.057925 0.119551 0.174242

-0.057704 -0.067992 -0.017050
-0.290811 -0.567240 -0.203571
-0.520993 -0.816819 -0.202930
0.209536 0.239489 0.238839
0.160853 0.064129 0.247282
0.040637 -0.018392 0.252953
-0.059583 -0.032677 -0.066845
0.032172 -0.075461 0.020770
0.001962 -0.086294 0.086697

-0.009670 0.129648 0.047077
0.154135 0.257382 0.047110
0.025046 0.175482 -0.085080
0.094015 -0.050236 0.006194
0.099397 -0.019921 -0.013377
0.119420 0.209660 0.127271
-0.320671 -0.560530 -0.077650
-0.579595 -0.734188 -0.278616
-0.327189 -0.167350 0.062700

-0.081722 -0.311504 -0.254307
-0.153003 -0.335090 -0.323455
-0.075152 -0.195275 -0.349775
0.029248 -0.146707 -0.063724
0.110291 0.041027 0.001923
0.201918 0.216631 -0.003422
0.089144 0.028666 0.089932
0.203095 0.236581 0.239220
0.270916 0.371100 0.162016

-0.049623 0.123969 0.082416
-0.364748 -0.083052 0.025494
-0.201482 0.095808 -0.038506
-0.259692 -0.618090 -0.330595
-0.431130 -0.584006 -0.226853
-0.061805 0.064855 -0.000499
0.079684 0.009543 0.014719
0.078012 0.099711 0.114502
0.187613 0.318391 0.141758

0.012258 0.255654 0.363556
0.010334 0.108123 0.326442
-0.226471 -0.141445 0.114177
-0.075256 -0.221118 -0.144517
-0.018053 -0.590004 -0.320322
-0.008462 -0.401748 -0.168428
0.041793 0.019781 -0.105677
0.227737 -0.055878 -0.163851
0.277702 0.221447 0.100569

-0.157918 -0.131137 -0.148537
-0.145436 -0.122798 -0.143682
-0.187045 -0.094850 -0.106790
0.131405 0.241414 0.168401
0.206315 0.329717 0.221136
0.145805 0.268862 0.175491
-0.066217 -0.078460 -0.088514
0.002123 -0.045017 -0.056060
-0.063191 -0.043289 -0.055636

0.110997 -0.356362 -0.354726
0.179016 0.181323 0.348220
-0.024791 0.027018 0.132258
0.105182 -0.495257 -0.469254
0.110014 0.079443 0.232095
0.092781 0.116541 0.176565
0.127615 -0.325236 -0.249906
0.085963 0.065157 0.183644
0.048558 -0.014145 0.023452

0.073802 0.065383 -0.106383
0.247113 0.146033 0.039367
0.236582 -0.002992 -0.139359
0.076098 -0.006823 0.132011
0.073146 -0.113229 0.259177
-0.050106 -0.395150 -0.027201
0.019461 -0.072135 0.240082
-0.230916 -0.433578 0.222563
-0.451517 -0.795844 0.014130

0.067780 0.128869 0.137651
0.138749 -0.038912 -0.291146
0.116912 0.119796 -0.121508
0.023654 -0.030875 0.081113
0.125904 -0.416082 -1.056235
0.117513 -0.059214 -0.451611
0.045734 -0.023967 0.133669
0.098128 -0.331291 -0.614050
0.063422 -0.028339 -0.208839

